digraph Tree {
node [shape=box] ;
0 [label="Sex_male <= 0.5\ngini = 0.479\nsamples = 743\nvalue = [447, 296]"] ;
1 [label="Pclass_3 <= 0.5\ngini = 0.371\nsamples = 268\nvalue = [66, 202]"] ;
0 -> 1 [labeldistance=2.5, labelangle=45, headlabel="True"] ;
2 [label="Multiply <= 3.0\ngini = 0.09\nsamples = 149\nvalue = [7, 142]"] ;
1 -> 2 ;
3 [label="gini = 0.0\nsamples = 1\nvalue = [1, 0]"] ;
2 -> 3 ;
4 [label="Multiply <= 112.0\ngini = 0.078\nsamples = 148\nvalue = [6, 142]"] ;
2 -> 4 ;
5 [label="Title_Mr <= 0.5\ngini = 0.066\nsamples = 147\nvalue = [5, 142]"] ;
4 -> 5 ;
6 [label="gini = 0.0\nsamples = 71\nvalue = [0, 71]"] ;
5 -> 6 ;
7 [label="gini = 0.123\nsamples = 76\nvalue = [5, 71]"] ;
5 -> 7 ;
8 [label="gini = 0.0\nsamples = 1\nvalue = [1, 0]"] ;
4 -> 8 ;
9 [label="Fare <= 24.808\ngini = 0.5\nsamples = 119\nvalue = [59, 60]"] ;
1 -> 9 ;
10 [label="Multiply <= 109.5\ngini = 0.483\nsamples = 98\nvalue = [40, 58]"] ;
9 -> 10 ;
11 [label="fare_per_person <= 8.04\ngini = 0.468\nsamples = 91\nvalue = [34, 57]"] ;
10 -> 11 ;
12 [label="gini = 0.432\nsamples = 73\nvalue = [23, 50]"] ;
11 -> 12 ;
13 [label="gini = 0.475\nsamples = 18\nvalue = [11, 7]"] ;
11 -> 13 ;
14 [label="Multiply <= 165.0\ngini = 0.245\nsamples = 7\nvalue = [6, 1]"] ;
10 -> 14 ;
15 [label="gini = 0.0\nsamples = 6\nvalue = [6, 0]"] ;
14 -> 15 ;
16 [label="gini = 0.0\nsamples = 1\nvalue = [0, 1]"] ;
14 -> 16 ;
17 [label="fare_per_person <= 4.567\ngini = 0.172\nsamples = 21\nvalue = [19, 2]"] ;
9 -> 17 ;
18 [label="fare_per_person <= 4.476\ngini = 0.408\nsamples = 7\nvalue = [5, 2]"] ;
17 -> 18 ;
19 [label="gini = 0.0\nsamples = 5\nvalue = [5, 0]"] ;
18 -> 19 ;
20 [label="gini = 0.0\nsamples = 2\nvalue = [0, 2]"] ;
18 -> 20 ;
21 [label="gini = 0.0\nsamples = 14\nvalue = [14, 0]"] ;
17 -> 21 ;
22 [label="Multiply <= 39.0\ngini = 0.317\nsamples = 475\nvalue = [381, 94]"] ;
0 -> 22 [labeldistance=2.5, labelangle=-45, headlabel="False"] ;
23 [label="Multiply <= 5.0\ngini = 0.5\nsamples = 79\nvalue = [39, 40]"] ;
22 -> 23 ;
24 [label="Pclass_3 <= 0.5\ngini = 0.18\nsamples = 10\nvalue = [1, 9]"] ;
23 -> 24 ;
25 [label="gini = 0.0\nsamples = 8\nvalue = [0, 8]"] ;
24 -> 25 ;
26 [label="fare_per_person <= 5.503\ngini = 0.5\nsamples = 2\nvalue = [1, 1]"] ;
24 -> 26 ;
27 [label="gini = 0.0\nsamples = 1\nvalue = [0, 1]"] ;
26 -> 27 ;
28 [label="gini = 0.0\nsamples = 1\nvalue = [1, 0]"] ;
26 -> 28 ;
29 [label="Cabin_Codes_E <= 0.5\ngini = 0.495\nsamples = 69\nvalue = [38, 31]"] ;
23 -> 29 ;
30 [label="Cabin_Codes_B <= 0.5\ngini = 0.479\nsamples = 63\nvalue = [38, 25]"] ;
29 -> 30 ;
31 [label="gini = 0.459\nsamples = 56\nvalue = [36, 20]"] ;
30 -> 31 ;
32 [label="gini = 0.408\nsamples = 7\nvalue = [2, 5]"] ;
30 -> 32 ;
33 [label="gini = 0.0\nsamples = 6\nvalue = [0, 6]"] ;
29 -> 33 ;
34 [label="fare_per_person <= 26.139\ngini = 0.236\nsamples = 396\nvalue = [342, 54]"] ;
22 -> 34 ;
35 [label="Cabin_Codes_C <= 0.5\ngini = 0.18\nsamples = 339\nvalue = [305, 34]"] ;
34 -> 35 ;
36 [label="Title_Master <= 0.5\ngini = 0.176\nsamples = 338\nvalue = [305, 33]"] ;
35 -> 36 ;
37 [label="gini = 0.168\nsamples = 334\nvalue = [303, 31]"] ;
36 -> 37 ;
38 [label="gini = 0.5\nsamples = 4\nvalue = [2, 2]"] ;
36 -> 38 ;
39 [label="gini = 0.0\nsamples = 1\nvalue = [0, 1]"] ;
35 -> 39 ;
40 [label="fare_per_person <= 26.475\ngini = 0.456\nsamples = 57\nvalue = [37, 20]"] ;
34 -> 40 ;
41 [label="gini = 0.0\nsamples = 3\nvalue = [0, 3]"] ;
40 -> 41 ;
42 [label="Multiply <= 75.0\ngini = 0.431\nsamples = 54\nvalue = [37, 17]"] ;
40 -> 42 ;
43 [label="gini = 0.39\nsamples = 49\nvalue = [36, 13]"] ;
42 -> 43 ;
44 [label="gini = 0.32\nsamples = 5\nvalue = [1, 4]"] ;
42 -> 44 ;
}